/*!
 * The following copyright notice may not be removed under any circumstances.
 * 
 * Copyright:
 * HTF Gotham  Copr. 2000 The Hoefler Type Foundry, Inc. Info: www.typography.com
 * 
 * Manufacturer:
 * HTF Gotham Copr. The Hoefler Type Foundry, Inc
 */
Cufon.registerFont({"w":500,"face":{"font-family":"GothamBold","font-weight":700,"font-stretch":"normal","units-per-em":"1000","panose-1":"2 0 8 3 3 0 0 2 0 4","ascent":"800","descent":"-200","bbox":"-71 -932 1195 173","underline-thickness":"20","underline-position":"-113","unicode-range":"U+0020-U+FB02"},"glyphs":{" ":{"w":300},"\ufb01":{"d":"457,-536r152,0r0,536r-152,0r0,-536xm368,-596v-46,-19,-131,-26,-124,45r0,21r123,0r0,124r-121,0r0,406r-152,0r0,-406r-63,0r0,-125r63,0v-8,-132,42,-207,166,-206v45,0,76,5,108,15r0,126xm453,-730r160,0r0,135r-160,0r0,-135","w":684},"\ufb02":{"d":"457,-730r152,0r0,730r-152,0r0,-730xm368,-596v-46,-19,-131,-26,-124,45r0,21r123,0r0,124r-121,0r0,406r-152,0r0,-406r-63,0r0,-125r63,0v-8,-132,42,-207,166,-206v45,0,76,5,108,15r0,126","w":684},"!":{"d":"81,-160r162,0r0,160r-162,0r0,-160xm73,-680r0,-20r178,0r0,20r-47,442r-84,0","w":324},"\"":{"d":"75,-700r168,0r-109,319r-77,0xm311,-700r168,0r-109,319r-77,0","w":520},"#":{"d":"410,-278r25,-148r-145,0r-25,148r145,0xm111,-150r-76,0r0,-128r98,0r25,-148r-88,0r0,-128r110,0r25,-146r132,0r-25,146r145,0r25,-146r132,0r-25,146r76,0r0,128r-98,0r-25,148r88,0r0,128r-110,0r-26,150r-132,0r26,-150r-145,0r-26,150r-132,0","w":700},"$":{"d":"379,-126v67,-5,90,-63,56,-108v-9,-12,-29,-22,-56,-32r0,140xm285,-575v-58,1,-88,59,-55,103v9,11,28,22,55,32r0,-135xm596,-200v0,129,-93,183,-212,199r0,99r-104,0r0,-101v-92,-12,-174,-48,-236,-95r78,-114v51,37,95,67,163,81r0,-159v-115,-33,-215,-71,-215,-214v0,-127,92,-181,210,-196r0,-58r104,0r0,60v76,11,133,37,186,74r-67,117v-37,-24,-77,-47,-124,-59r0,151v128,38,217,77,217,215","w":646},"%":{"d":"580,-173v0,44,24,90,66,90v44,0,64,-44,64,-88v0,-43,-25,-88,-66,-88v-44,0,-64,42,-64,86xm150,-531v0,44,24,90,66,90v44,0,64,-44,64,-88v0,-43,-25,-88,-66,-88v-44,0,-64,42,-64,86xm815,-173v0,108,-63,181,-171,181v-107,0,-169,-71,-169,-179v0,-107,64,-179,171,-179v106,0,169,71,169,177xm626,-700r119,0r-511,700r-119,0xm385,-531v0,108,-63,181,-171,181v-107,0,-169,-71,-169,-179v0,-107,64,-179,171,-179v106,0,169,71,169,177","w":860},"&":{"d":"189,-200v-3,72,83,102,149,74v17,-7,34,-17,50,-30r-134,-136v-38,19,-62,46,-65,92xm330,-592v-59,0,-83,65,-58,116v6,13,16,27,31,44v50,-21,90,-37,93,-95v1,-39,-28,-65,-66,-65xm657,-316v-27,50,-58,103,-92,148r103,103r-113,79r-81,-82v-53,42,-115,78,-205,78v-137,0,-235,-68,-235,-204v0,-102,59,-156,136,-192v-30,-42,-49,-80,-49,-142v0,-119,87,-184,212,-184v118,0,197,63,197,178v0,107,-69,151,-147,183r93,93v24,-37,46,-80,68,-120","w":696},"'":{"d":"75,-700r170,0r-109,319r-79,0","w":286},"(":{"d":"210,-287v0,173,88,252,193,327r-67,101v-163,-90,-277,-203,-277,-428v0,-224,115,-339,277,-428r67,101v-105,75,-193,154,-193,327","w":445},")":{"d":"109,-715v163,90,277,203,277,428v0,224,-115,339,-277,428r-67,-101v105,-75,193,-154,193,-327v0,-173,-88,-252,-193,-327","w":445},"*":{"d":"190,-492r-97,74r-42,-72r112,-47r-112,-47r42,-72r97,74r-16,-120r82,0r-16,120r97,-74r42,72r-112,47r112,47r-42,72r-97,-74r16,120r-82,0","w":430},"+":{"d":"249,-283r-181,0r0,-138r181,0r0,-180r142,0r0,180r181,0r0,138r-181,0r0,180r-142,0r0,-180","w":640},",":{"d":"26,99v71,-7,103,-40,98,-99r-62,0r0,-160r162,0v-1,106,10,231,-48,278v-34,27,-78,43,-137,44","w":286},"-":{"d":"50,-383r308,0r0,146r-308,0r0,-146","w":408},"\u00ad":{"d":"50,-383r308,0r0,146r-308,0r0,-146","w":408},".":{"d":"62,-160r162,0r0,160r-162,0r0,-160","w":286},"\/":{"d":"415,-798r129,0r-443,926r-129,0","w":530},"0":{"d":"212,-352v0,120,41,225,154,225v112,0,152,-104,152,-223v0,-119,-43,-223,-154,-223v-112,0,-152,104,-152,221xm492,-16v-74,37,-180,33,-256,0v-146,-64,-225,-281,-160,-476v41,-123,132,-220,290,-220v205,0,310,153,310,362v0,163,-72,278,-184,334","w":730},"1":{"d":"178,-549r-122,30r-32,-126r201,-60r105,0r0,705r-152,0r0,-549","w":422},"2":{"d":"319,-710v172,0,279,123,229,296v-26,91,-100,137,-172,193r-114,88r305,0r0,133r-518,0r0,-122r233,-191v54,-50,116,-78,121,-168v3,-58,-37,-91,-94,-91v-74,0,-98,44,-143,94r-108,-87v60,-79,124,-145,261,-145","w":623},"3":{"d":"563,-219v0,151,-99,228,-252,231v-129,2,-213,-51,-273,-121r106,-101v44,48,86,83,169,84v56,1,100,-32,99,-87v-2,-87,-103,-93,-201,-89r-24,-98r167,-168r-275,0r0,-132r473,0r0,116r-177,169v106,19,188,70,188,196","w":621},"4":{"d":"398,-276r0,-218r-186,218r186,0xm398,-151r-342,0r-25,-109r384,-445r130,0r0,429r94,0r0,125r-94,0r0,151r-147,0r0,-151","w":689},"5":{"d":"571,-232v0,162,-104,242,-266,244v-121,2,-197,-44,-262,-105r93,-111v47,40,91,75,167,76v69,1,117,-32,117,-99v0,-110,-164,-110,-241,-69r-89,-59r20,-345r430,0r0,135r-298,0r-8,121v30,-7,54,-12,92,-12v150,3,245,72,245,224","w":630},"6":{"d":"211,-226v-1,66,52,106,122,106v71,0,120,-39,120,-105v0,-64,-52,-102,-122,-102v-70,0,-119,37,-120,101xm606,-232v4,196,-199,291,-384,225v-117,-42,-169,-148,-168,-323v2,-242,116,-412,373,-377v64,9,110,39,153,72r-81,119v-50,-54,-189,-84,-243,-10v-21,29,-35,71,-41,116v38,-24,79,-46,145,-45v148,4,243,74,246,223","w":662},"7":{"d":"397,-567r-329,0r0,-133r504,0r0,116r-314,584r-174,0","w":619},"8":{"d":"194,-206v1,58,55,89,121,89v67,0,120,-30,121,-89v0,-59,-58,-86,-121,-86v-64,0,-121,27,-121,86xm215,-502v-1,54,43,88,100,88v57,0,101,-33,100,-87v-1,-48,-44,-82,-100,-82v-56,0,-99,33,-100,81xm585,-198v0,148,-119,208,-270,208v-148,0,-270,-60,-270,-204v0,-94,45,-136,113,-169v-52,-33,-93,-73,-89,-155v6,-131,108,-192,246,-192v138,0,241,61,246,194v3,81,-38,120,-89,153v64,36,113,73,113,165","w":630},"9":{"d":"209,-474v-1,68,51,107,122,107v71,0,120,-40,120,-106v0,-66,-52,-107,-123,-107v-71,0,-119,40,-119,106xm602,-464v30,256,-53,473,-300,476v-106,1,-170,-36,-230,-83r81,-117v57,58,193,91,253,16v23,-29,37,-68,42,-115v-34,29,-80,49,-142,48v-153,-3,-248,-75,-250,-228v-2,-195,191,-291,383,-227v94,31,149,114,163,230","w":662},":":{"d":"67,-160r162,0r0,160r-162,0r0,-160xm67,-536r162,0r0,160r-162,0r0,-160","w":296},";":{"d":"31,99v71,-7,103,-40,98,-99r-62,0r0,-160r162,0v-1,106,10,231,-48,278v-34,27,-78,43,-137,44xm67,-536r162,0r0,160r-162,0r0,-160","w":296},"\u037e":{"d":"31,99v71,-7,103,-40,98,-99r-62,0r0,-160r162,0v-1,106,10,231,-48,278v-34,27,-78,43,-137,44xm67,-536r162,0r0,160r-162,0r0,-160","w":296},"<":{"d":"68,-283r0,-138r484,-212r0,141r-338,139r338,139r0,143","w":640},"=":{"d":"83,-291r474,0r0,138r-474,0r0,-138xm83,-551r474,0r0,138r-474,0r0,-138","w":640},">":{"d":"88,-212r338,-139r-338,-139r0,-143r484,212r0,138r-484,212r0,-141","w":640},"?":{"d":"164,-160r162,0r0,160r-162,0r0,-160xm265,-709v145,2,242,65,242,209v0,130,-88,178,-197,201r-11,61r-102,0r-23,-162r5,-5v99,-6,175,-16,175,-93v0,-49,-39,-72,-92,-71v-69,2,-110,30,-150,69r-92,-101v57,-60,130,-109,245,-108","w":544},"@":{"d":"368,-265v-2,60,37,97,94,97v77,0,116,-63,119,-144v2,-56,-39,-97,-93,-94v-76,4,-118,61,-120,141xm764,87v-106,73,-301,104,-442,41v-151,-67,-269,-195,-269,-402v0,-205,118,-336,266,-403v103,-46,238,-47,343,-2v142,61,265,175,265,363v0,146,-60,245,-199,251v-73,3,-122,-27,-153,-60v-35,29,-82,60,-148,60v-150,0,-220,-152,-165,-292v32,-82,99,-148,206,-152v69,-2,109,30,138,68r11,-53r118,19r-50,300v0,39,30,65,73,63v140,-8,153,-221,97,-338v-60,-127,-182,-222,-364,-222v-188,0,-307,107,-366,244v-40,95,-40,215,0,309v60,139,181,241,374,241v109,0,172,-26,245,-67","w":980},"A":{"d":"486,-293r-93,-227r-93,227r186,0xm324,-705r142,0r300,705r-161,0r-64,-157r-296,0r-64,157r-157,0","w":790},"B":{"d":"526,-211v0,-114,-180,-69,-292,-78r0,154v112,-9,292,38,292,-76xm487,-491v0,-104,-153,-67,-253,-74r0,148v102,-6,253,28,253,-74xm679,-194v0,257,-345,183,-595,194r0,-700r325,0v132,-1,231,61,231,183v0,79,-41,122,-92,151v75,30,131,71,131,172","w":722},"C":{"d":"699,-113v-67,72,-148,127,-287,125v-171,-3,-279,-94,-332,-219v-36,-86,-35,-196,0,-283v60,-148,214,-252,428,-214v81,14,138,52,186,100r-98,113v-49,-43,-96,-79,-179,-79v-128,0,-203,90,-203,220v0,129,74,220,203,220v90,0,132,-37,184,-82","w":738},"D":{"d":"568,-348v0,-132,-79,-209,-211,-213r-119,0r0,422r119,0v132,-4,211,-78,211,-209xm84,-700v148,6,312,-19,424,26v127,51,221,153,221,324v0,169,-95,272,-221,323v-112,46,-276,21,-424,27r0,-700","w":782},"E":{"d":"84,-700r528,0r0,137r-375,0r0,142r330,0r0,137r-330,0r0,147r380,0r0,137r-533,0r0,-700","w":670},"F":{"d":"84,-700r533,0r0,140r-379,0r0,149r334,0r0,140r-334,0r0,271r-154,0r0,-700","w":656},"G":{"d":"720,-99v-90,87,-290,149,-448,84v-128,-53,-219,-160,-219,-335v0,-171,96,-279,220,-334v111,-50,286,-28,366,27v19,13,38,26,56,41r-97,117v-55,-53,-167,-97,-262,-53v-71,33,-122,100,-122,202v0,134,78,222,212,222v57,0,106,-14,145,-42r0,-100r-155,0r0,-133r304,0r0,304","w":784},"H":{"d":"84,-700r154,0r0,277r284,0r0,-277r154,0r0,700r-154,0r0,-281r-284,0r0,281r-154,0r0,-700","w":760},"I":{"d":"91,-700r154,0r0,700r-154,0r0,-700","w":336},"J":{"d":"491,-242v-1,164,-87,249,-248,252v-109,2,-180,-49,-229,-105r97,-108v35,36,67,70,128,70v66,0,95,-42,94,-116r0,-451r158,0r0,458","w":564},"K":{"d":"84,-700r154,0r0,306r284,-306r186,0r-285,297r298,403r-185,0r-217,-298r-81,84r0,214r-154,0r0,-700","w":730},"L":{"d":"84,-700r154,0r0,560r349,0r0,140r-503,0r0,-700","w":619},"M":{"d":"84,-700r166,0r184,296r184,-296r166,0r0,700r-153,0r0,-457r-197,299r-4,0r-195,-296r0,454r-151,0r0,-700","w":868},"N":{"d":"84,-700r142,0r328,431r0,-431r152,0r0,700r-131,0r-339,-445r0,445r-152,0r0,-700","w":790},"O":{"d":"424,-570v-159,-4,-248,151,-194,305v27,77,93,135,196,135v132,0,210,-88,210,-220v0,-131,-81,-217,-212,-220xm574,-16v-89,38,-210,38,-299,0v-126,-55,-222,-161,-222,-334v0,-171,97,-280,223,-334v89,-38,210,-38,299,0v126,55,222,161,222,334v0,171,-97,280,-223,334","w":850},"P":{"d":"482,-453v1,-73,-51,-108,-125,-108r-119,0r0,214r122,0v71,2,121,-42,122,-106xm638,-458v0,169,-116,243,-283,248r-117,0r0,210r-154,0r0,-700r286,0v163,3,268,82,268,242","w":668},"Q":{"d":"424,-570v-159,0,-244,149,-194,305v32,101,163,169,288,116r-114,-97r98,-110r115,104v58,-155,-30,-318,-193,-318xm770,-492v48,111,27,263,-35,343r72,61r-98,109r-77,-69v-84,61,-244,81,-357,32v-126,-55,-222,-161,-222,-334v0,-171,97,-280,223,-334v89,-38,210,-38,299,0v89,38,157,104,195,192","w":850},"R":{"d":"512,-459v1,-71,-48,-102,-121,-102r-153,0r0,201r156,0v70,1,117,-34,118,-99xm668,-469v1,118,-64,186,-150,219r171,250r-180,0r-150,-224r-121,0r0,224r-154,0r0,-700r320,0v156,-1,263,80,264,231","w":723},"S":{"d":"590,-209v0,208,-231,256,-414,191v-51,-18,-98,-46,-140,-84r91,-109v58,45,117,78,209,85v80,6,140,-75,74,-116v-123,-75,-346,-50,-346,-257v0,-191,211,-247,386,-188v43,15,83,37,119,66r-80,116v-53,-35,-107,-62,-182,-69v-79,-7,-125,81,-60,115v128,66,343,54,343,250","w":640},"T":{"d":"247,-558r-213,0r0,-142r580,0r0,142r-213,0r0,558r-154,0r0,-558","w":648},"U":{"d":"683,-305v-1,205,-105,316,-307,316v-192,0,-303,-111,-303,-311r0,-400r154,0r0,396v-1,108,50,173,151,173v100,0,151,-62,151,-168r0,-401r154,0r0,395","w":756},"V":{"d":"24,-700r170,0r183,493r183,-493r166,0r-283,705r-136,0","w":750},"W":{"d":"30,-700r165,0r145,474r157,-476r132,0r157,476r145,-474r161,0r-239,705r-134,0r-158,-458r-158,458r-134,0","w":1122},"X":{"d":"275,-356r-234,-344r180,0r147,227r148,-227r175,0r-234,342r244,358r-180,0r-157,-240r-158,240r-175,0","w":732},"Y":{"d":"281,-276r-269,-424r180,0r167,281r170,-281r175,0r-269,421r0,279r-154,0r0,-276","w":716},"Z":{"d":"63,-117r385,-448r-373,0r0,-135r571,0r0,117r-385,448r385,0r0,135r-583,0r0,-117","w":708},"[":{"d":"83,-700r323,0r0,119r-177,0r0,592r177,0r0,119r-323,0r0,-830","w":465},"\\":{"d":"-14,-798r129,0r443,926r-129,0","w":530},"]":{"d":"59,11r177,0r0,-592r-177,0r0,-119r323,0r0,830r-323,0r0,-119","w":465},"^":{"d":"198,-700r104,0r148,207r-110,0r-91,-117r-91,117r-108,0"},"_":{"d":"-2,44r604,0r0,116r-604,0r0,-116","w":600},"`":{"d":"110,-715r131,-57r113,177r-116,0"},"a":{"d":"183,-162v0,46,37,67,83,67v75,0,129,-39,119,-121v-62,-31,-202,-35,-202,54xm383,-305v13,-139,-178,-116,-263,-78r-38,-116v62,-26,118,-44,208,-43v158,0,238,76,239,231r0,311r-147,0r0,-58v-37,40,-85,70,-162,68v-110,-2,-184,-55,-184,-166v0,-124,91,-169,216,-171v55,0,91,9,131,22","w":592},"b":{"d":"218,-269v0,87,45,150,130,150v85,0,131,-62,131,-150v0,-86,-47,-148,-131,-148v-84,0,-130,62,-130,148xm220,-459v37,-48,84,-90,167,-87v158,6,244,114,244,279v0,165,-86,270,-244,277v-81,4,-130,-38,-167,-80r0,70r-152,0r0,-730r152,0r0,271","w":675},"c":{"d":"540,-86v-53,56,-110,100,-219,98v-132,-2,-223,-71,-258,-170v-72,-202,49,-386,260,-388v104,0,163,36,214,90r-93,100v-33,-32,-61,-59,-122,-59v-84,0,-130,62,-130,148v0,88,49,148,136,148v58,0,89,-27,123,-57","w":571},"d":{"d":"196,-269v0,88,46,150,131,150v85,0,130,-63,130,-150v0,-86,-46,-148,-130,-148v-84,0,-131,61,-131,148xm455,-77v-37,48,-84,90,-167,87v-158,-6,-244,-114,-244,-279v0,-165,86,-270,244,-277v81,-4,130,38,167,80r0,-264r152,0r0,730r-152,0r0,-77","w":675},"e":{"d":"420,-310v-8,-63,-45,-114,-113,-114v-69,0,-105,51,-116,114r229,0xm541,-88v-48,59,-116,99,-219,100v-208,2,-330,-183,-260,-387v34,-98,115,-171,245,-171v187,0,270,137,259,331r-373,0v13,65,58,105,131,105v62,0,92,-22,130,-55","w":613},"f":{"d":"368,-596v-46,-19,-131,-26,-124,45r0,21r123,0r0,124r-121,0r0,406r-152,0r0,-406r-63,0r0,-125r63,0v-8,-132,42,-207,166,-206v45,0,76,5,108,15r0,126","w":382},"g":{"d":"196,-296v-3,75,56,128,130,126v79,-2,131,-46,131,-126v0,-78,-52,-124,-131,-124v-79,0,-127,47,-130,124xm607,-121v1,200,-101,284,-299,283v-93,0,-173,-22,-237,-56r52,-114v54,28,103,49,181,49v111,1,159,-57,153,-172v-44,50,-86,87,-175,87v-149,0,-238,-97,-238,-252v0,-153,90,-245,238,-250v85,-3,131,37,173,80r0,-70r152,0r0,415","w":675},"h":{"d":"315,-408v-62,0,-95,42,-95,109r0,299r-152,0r0,-730r152,0r0,270v36,-45,77,-85,157,-86v118,-1,182,79,182,199r0,347r-152,0r0,-299v1,-67,-29,-109,-92,-109","w":623},"i":{"d":"75,-536r152,0r0,536r-152,0r0,-536xm71,-730r160,0r0,135r-160,0r0,-135","w":302},"j":{"d":"227,-9v7,142,-100,191,-238,166r0,-119v51,10,86,-5,86,-59r0,-515r152,0r0,527xm71,-730r160,0r0,135r-160,0r0,-135","w":302},"k":{"d":"68,-730r152,0r0,389r178,-195r182,0r-204,211r211,325r-174,0r-140,-219r-53,56r0,163r-152,0r0,-730","w":592},"l":{"d":"75,-730r152,0r0,730r-152,0r0,-730","w":302},"m":{"d":"312,-408v-62,0,-93,42,-92,109r0,299r-152,0r0,-536r152,0r0,76v36,-45,78,-86,158,-86v74,0,125,34,151,85v42,-50,92,-85,176,-85v118,0,181,74,181,197r0,349r-152,0r0,-299v0,-67,-27,-109,-89,-109v-62,0,-93,42,-92,109r0,299r-152,0r0,-299v0,-67,-27,-109,-89,-109","w":950},"n":{"d":"315,-408v-62,0,-95,42,-95,109r0,299r-152,0r0,-536r152,0r0,76v36,-45,77,-85,157,-86v118,-1,182,79,182,199r0,347r-152,0r0,-299v1,-67,-29,-109,-92,-109","w":623},"o":{"d":"192,-269v0,90,52,150,141,150v90,0,139,-59,139,-148v0,-88,-54,-148,-141,-148v-89,0,-139,58,-139,146xm622,-269v0,216,-195,327,-406,259v-127,-41,-214,-206,-152,-366v49,-126,220,-213,384,-148v99,39,174,123,174,255","w":664},"p":{"d":"218,-269v0,87,45,150,130,150v85,0,131,-62,131,-150v0,-86,-47,-148,-131,-148v-84,0,-130,62,-130,148xm387,10v-81,4,-130,-38,-167,-80r0,230r-152,0r0,-696r152,0r0,77v37,-48,84,-90,167,-87v158,6,244,114,244,279v0,165,-86,270,-244,277","w":675},"q":{"d":"196,-269v0,88,46,150,131,150v85,0,130,-63,130,-150v0,-86,-46,-148,-130,-148v-84,0,-131,61,-131,148xm288,-546v81,-4,130,38,167,80r0,-70r152,0r0,696r-152,0r0,-237v-37,48,-84,90,-167,87v-158,-6,-244,-114,-244,-279v0,-165,86,-270,244,-277","w":675},"r":{"d":"391,-387v-116,-1,-171,67,-171,189r0,198r-152,0r0,-536r152,0r0,108v30,-68,74,-123,171,-118r0,159","w":418},"s":{"d":"461,-165v5,166,-174,202,-321,155v-40,-13,-78,-33,-114,-61r65,-100v48,35,101,58,169,64v64,6,86,-59,30,-79v-102,-37,-234,-48,-237,-188v-4,-198,275,-202,396,-108r-58,105v-42,-24,-91,-46,-145,-50v-41,-3,-72,30,-47,59v89,64,258,53,262,203","w":502},"t":{"d":"369,-22v-32,18,-69,31,-120,31v-107,1,-157,-53,-156,-161r0,-254r-64,0r0,-130r64,0r0,-137r152,0r0,137r126,0r0,130r-126,0r0,229v-3,70,82,57,124,33r0,122","w":415},"u":{"d":"403,-76v-36,45,-77,85,-157,86v-118,1,-182,-79,-182,-199r0,-347r152,0r0,299v-1,67,29,109,92,109v62,0,95,-42,95,-109r0,-299r152,0r0,536r-152,0r0,-76","w":623},"v":{"d":"20,-536r161,0r120,359r121,-359r158,0r-211,540r-138,0","w":600},"w":{"d":"24,-536r154,0r86,325r101,-327r131,0r102,328r88,-326r151,0r-167,540r-137,0r-103,-329r-105,329r-136,0","w":861},"x":{"d":"211,-272r-181,-264r163,0r100,156r101,-156r159,0r-181,261r189,275r-163,0r-108,-167r-108,167r-159,0","w":584},"y":{"d":"112,16v33,23,104,36,118,-14r-210,-538r161,0r122,365r117,-365r158,0r-206,549v-32,82,-65,150,-176,150v-58,0,-97,-15,-135,-37","w":600},"z":{"d":"50,-107r277,-306r-268,0r0,-123r457,0r0,107r-278,306r278,0r0,123r-466,0r0,-107","w":563},"{":{"d":"321,-79v-2,85,54,98,122,119r-27,101v-152,-22,-250,-80,-231,-267v9,-89,-45,-106,-136,-103r0,-116v121,14,133,-51,133,-172v0,-142,107,-174,234,-198r27,101v-68,21,-124,34,-122,119r3,74v-1,80,-41,112,-104,134v63,22,103,54,104,134","w":490},"|":{"d":"115,-798r120,0r0,926r-120,0r0,-926","w":350},"}":{"d":"441,-229v-121,-14,-133,51,-133,172v0,142,-107,174,-234,198r-27,-101v68,-21,124,-34,122,-119r-3,-74v1,-80,41,-112,104,-134v-63,-22,-103,-54,-104,-134r3,-74v2,-85,-54,-98,-122,-119r27,-101v152,22,250,80,231,267v-9,89,45,106,136,103r0,116","w":490},"~":{"d":"216,-267v-46,-18,-73,6,-86,43r-81,-25v20,-80,62,-160,169,-132v37,9,65,33,105,33v36,0,43,-22,57,-49r81,25v-21,85,-63,160,-169,132v-27,-8,-51,-18,-76,-27","w":510},"\u00c4":{"d":"215,-890r146,0r0,135r-146,0r0,-135xm429,-890r146,0r0,135r-146,0r0,-135xm486,-293r-93,-227r-93,227r186,0xm324,-705r142,0r300,705r-161,0r-64,-157r-296,0r-64,157r-157,0","w":790},"\u00c5":{"d":"486,-293r-93,-227r-93,227r186,0xm333,-776v0,35,28,63,62,63v34,0,62,-28,62,-63v0,-33,-29,-61,-62,-61v-33,0,-62,28,-62,61xm516,-776v2,40,-19,68,-42,89r292,687r-161,0r-64,-157r-296,0r-64,157r-157,0r292,-687v-23,-21,-44,-48,-42,-89v3,-70,51,-116,121,-116v70,0,118,46,121,116","w":790},"\u00c7":{"d":"417,-130v90,0,132,-37,184,-82r98,99v-62,68,-137,119,-261,124r-65,162r-127,-53r80,-118v-160,-43,-273,-156,-273,-352v0,-170,93,-279,217,-334v116,-52,296,-25,372,36v18,14,36,28,52,44r-98,113v-49,-43,-96,-79,-179,-79v-128,0,-203,90,-203,220v0,129,74,220,203,220","w":738},"\u00c9":{"d":"377,-932r131,57r-128,120r-116,0xm84,-700r528,0r0,137r-375,0r0,142r330,0r0,137r-330,0r0,147r380,0r0,137r-533,0r0,-700","w":670},"\u00d1":{"d":"356,-788v-46,-18,-73,6,-86,43r-81,-25v20,-80,62,-160,169,-132v37,9,65,33,105,33v36,0,43,-22,57,-49r81,25v-21,85,-63,160,-169,132v-27,-8,-51,-18,-76,-27xm84,-700r142,0r328,431r0,-431r152,0r0,700r-131,0r-339,-445r0,445r-152,0r0,-700","w":790},"\u00d6":{"d":"245,-890r146,0r0,135r-146,0r0,-135xm459,-890r146,0r0,135r-146,0r0,-135xm424,-570v-159,-4,-248,151,-194,305v27,77,93,135,196,135v132,0,210,-88,210,-220v0,-131,-81,-217,-212,-220xm574,-16v-89,38,-210,38,-299,0v-126,-55,-222,-161,-222,-334v0,-171,97,-280,223,-334v89,-38,210,-38,299,0v126,55,222,161,222,334v0,171,-97,280,-223,334","w":850},"\u00dc":{"d":"198,-890r146,0r0,135r-146,0r0,-135xm412,-890r146,0r0,135r-146,0r0,-135xm683,-305v-1,205,-105,316,-307,316v-192,0,-303,-111,-303,-311r0,-400r154,0r0,396v-1,108,50,173,151,173v100,0,151,-62,151,-168r0,-401r154,0r0,395","w":756},"\u00e1":{"d":"340,-772r131,57r-128,120r-116,0xm183,-162v0,46,37,67,83,67v75,0,129,-39,119,-121v-62,-31,-202,-35,-202,54xm383,-305v13,-139,-178,-116,-263,-78r-38,-116v62,-26,118,-44,208,-43v158,0,238,76,239,231r0,311r-147,0r0,-58v-37,40,-85,70,-162,68v-110,-2,-184,-55,-184,-166v0,-124,91,-169,216,-171v55,0,91,9,131,22","w":592},"\u00e0":{"d":"126,-715r131,-57r113,177r-116,0xm183,-162v0,46,37,67,83,67v75,0,129,-39,119,-121v-62,-31,-202,-35,-202,54xm383,-305v13,-139,-178,-116,-263,-78r-38,-116v62,-26,118,-44,208,-43v158,0,238,76,239,231r0,311r-147,0r0,-58v-37,40,-85,70,-162,68v-110,-2,-184,-55,-184,-166v0,-124,91,-169,216,-171v55,0,91,9,131,22","w":592},"\u00e2":{"d":"222,-752r144,0r123,157r-117,0r-79,-66r-79,66r-115,0xm183,-162v0,46,37,67,83,67v75,0,129,-39,119,-121v-62,-31,-202,-35,-202,54xm383,-305v13,-139,-178,-116,-263,-78r-38,-116v62,-26,118,-44,208,-43v158,0,238,76,239,231r0,311r-147,0r0,-58v-37,40,-85,70,-162,68v-110,-2,-184,-55,-184,-166v0,-124,91,-169,216,-171v55,0,91,9,131,22","w":592},"\u00e4":{"d":"114,-730r146,0r0,135r-146,0r0,-135xm328,-730r146,0r0,135r-146,0r0,-135xm183,-162v0,46,37,67,83,67v75,0,129,-39,119,-121v-62,-31,-202,-35,-202,54xm383,-305v13,-139,-178,-116,-263,-78r-38,-116v62,-26,118,-44,208,-43v158,0,238,76,239,231r0,311r-147,0r0,-58v-37,40,-85,70,-162,68v-110,-2,-184,-55,-184,-166v0,-124,91,-169,216,-171v55,0,91,9,131,22","w":592},"\u00e3":{"d":"258,-628v-46,-18,-74,6,-87,43r-81,-25v20,-80,61,-160,168,-132v37,9,66,33,106,33v36,0,43,-22,57,-49r81,25v-21,85,-62,160,-168,132v-27,-8,-51,-18,-76,-27xm183,-162v0,46,37,67,83,67v75,0,129,-39,119,-121v-62,-31,-202,-35,-202,54xm383,-305v13,-139,-178,-116,-263,-78r-38,-116v62,-26,118,-44,208,-43v158,0,238,76,239,231r0,311r-147,0r0,-58v-37,40,-85,70,-162,68v-110,-2,-184,-55,-184,-166v0,-124,91,-169,216,-171v55,0,91,9,131,22","w":592},"\u00e5":{"d":"232,-711v0,35,28,63,62,63v34,0,62,-28,62,-63v0,-33,-29,-61,-62,-61v-33,0,-62,28,-62,61xm415,-711v0,72,-51,118,-121,118v-70,0,-121,-46,-121,-118v0,-70,51,-116,121,-116v70,0,121,46,121,116xm183,-162v0,46,37,67,83,67v75,0,129,-39,119,-121v-62,-31,-202,-35,-202,54xm383,-305v13,-139,-178,-116,-263,-78r-38,-116v62,-26,118,-44,208,-43v158,0,238,76,239,231r0,311r-147,0r0,-58v-37,40,-85,70,-162,68v-110,-2,-184,-55,-184,-166v0,-124,91,-169,216,-171v55,0,91,9,131,22","w":592},"\u00e7":{"d":"328,-119v58,0,89,-27,123,-57r89,90v-49,51,-100,91,-194,97r-65,162r-127,-53r82,-120v-142,-37,-240,-204,-173,-375v39,-99,125,-169,260,-171v104,-1,163,36,214,90r-93,100v-33,-32,-61,-59,-122,-59v-84,0,-130,62,-130,148v0,88,49,148,136,148","w":571},"\u00e9":{"d":"359,-772r131,57r-128,120r-116,0xm420,-310v-8,-63,-45,-114,-113,-114v-69,0,-105,51,-116,114r229,0xm541,-88v-48,59,-116,99,-219,100v-208,2,-330,-183,-260,-387v34,-98,115,-171,245,-171v187,0,270,137,259,331r-373,0v13,65,58,105,131,105v62,0,92,-22,130,-55","w":613},"\u00e8":{"d":"122,-715r131,-57r113,177r-116,0xm420,-310v-8,-63,-45,-114,-113,-114v-69,0,-105,51,-116,114r229,0xm541,-88v-48,59,-116,99,-219,100v-208,2,-330,-183,-260,-387v34,-98,115,-171,245,-171v187,0,270,137,259,331r-373,0v13,65,58,105,131,105v62,0,92,-22,130,-55","w":613},"\u00ea":{"d":"234,-752r144,0r123,157r-117,0r-79,-66r-79,66r-115,0xm420,-310v-8,-63,-45,-114,-113,-114v-69,0,-105,51,-116,114r229,0xm541,-88v-48,59,-116,99,-219,100v-208,2,-330,-183,-260,-387v34,-98,115,-171,245,-171v187,0,270,137,259,331r-373,0v13,65,58,105,131,105v62,0,92,-22,130,-55","w":613},"\u00eb":{"d":"126,-730r146,0r0,135r-146,0r0,-135xm340,-730r146,0r0,135r-146,0r0,-135xm420,-310v-8,-63,-45,-114,-113,-114v-69,0,-105,51,-116,114r229,0xm541,-88v-48,59,-116,99,-219,100v-208,2,-330,-183,-260,-387v34,-98,115,-171,245,-171v187,0,270,137,259,331r-373,0v13,65,58,105,131,105v62,0,92,-22,130,-55","w":613},"\u00ed":{"d":"198,-772r131,57r-128,120r-116,0xm75,-536r152,0r0,536r-152,0r0,-536","w":302},"\u00ec":{"d":"-27,-715r131,-57r113,177r-116,0xm75,-536r152,0r0,536r-152,0r0,-536","w":302},"\u00ee":{"d":"79,-752r144,0r123,157r-117,0r-79,-66r-79,66r-115,0xm75,-536r152,0r0,536r-152,0r0,-536","w":302},"\u00ef":{"d":"-29,-730r146,0r0,135r-146,0r0,-135xm185,-730r146,0r0,135r-146,0r0,-135xm75,-536r152,0r0,536r-152,0r0,-536","w":302},"\u00f1":{"d":"278,-628v-46,-18,-74,6,-87,43r-81,-25v20,-80,61,-160,168,-132v37,9,66,33,106,33v36,0,43,-22,57,-49r81,25v-21,85,-62,160,-168,132v-27,-8,-51,-18,-76,-27xm315,-408v-62,0,-95,42,-95,109r0,299r-152,0r0,-536r152,0r0,76v36,-45,77,-85,157,-86v118,-1,182,79,182,199r0,347r-152,0r0,-299v1,-67,-29,-109,-92,-109","w":623},"\u00f3":{"d":"387,-772r131,57r-128,120r-116,0xm192,-269v0,90,52,150,141,150v90,0,139,-59,139,-148v0,-88,-54,-148,-141,-148v-89,0,-139,58,-139,146xm622,-269v0,216,-195,327,-406,259v-127,-41,-214,-206,-152,-366v49,-126,220,-213,384,-148v99,39,174,123,174,255","w":664},"\u00f2":{"d":"146,-715r131,-57r113,177r-116,0xm192,-269v0,90,52,150,141,150v90,0,139,-59,139,-148v0,-88,-54,-148,-141,-148v-89,0,-139,58,-139,146xm622,-269v0,216,-195,327,-406,259v-127,-41,-214,-206,-152,-366v49,-126,220,-213,384,-148v99,39,174,123,174,255","w":664},"\u00f4":{"d":"260,-752r144,0r123,157r-117,0r-79,-66r-79,66r-115,0xm192,-269v0,90,52,150,141,150v90,0,139,-59,139,-148v0,-88,-54,-148,-141,-148v-89,0,-139,58,-139,146xm622,-269v0,216,-195,327,-406,259v-127,-41,-214,-206,-152,-366v49,-126,220,-213,384,-148v99,39,174,123,174,255","w":664},"\u00f6":{"d":"152,-730r146,0r0,135r-146,0r0,-135xm366,-730r146,0r0,135r-146,0r0,-135xm192,-269v0,90,52,150,141,150v90,0,139,-59,139,-148v0,-88,-54,-148,-141,-148v-89,0,-139,58,-139,146xm622,-269v0,216,-195,327,-406,259v-127,-41,-214,-206,-152,-366v49,-126,220,-213,384,-148v99,39,174,123,174,255","w":664},"\u00f5":{"d":"294,-628v-46,-18,-74,6,-87,43r-81,-25v20,-80,61,-160,168,-132v37,9,66,33,106,33v36,0,43,-22,57,-49r81,25v-21,85,-62,160,-168,132v-27,-8,-51,-18,-76,-27xm192,-269v0,90,52,150,141,150v90,0,139,-59,139,-148v0,-88,-54,-148,-141,-148v-89,0,-139,58,-139,146xm622,-269v0,216,-195,327,-406,259v-127,-41,-214,-206,-152,-366v49,-126,220,-213,384,-148v99,39,174,123,174,255","w":664},"\u00fa":{"d":"350,-772r131,57r-128,120r-116,0xm403,-76v-36,45,-77,85,-157,86v-118,1,-182,-79,-182,-199r0,-347r152,0r0,299v-1,67,29,109,92,109v62,0,95,-42,95,-109r0,-299r152,0r0,536r-152,0r0,-76","w":623},"\u00f9":{"d":"141,-715r131,-57r113,177r-116,0xm403,-76v-36,45,-77,85,-157,86v-118,1,-182,-79,-182,-199r0,-347r152,0r0,299v-1,67,29,109,92,109v62,0,95,-42,95,-109r0,-299r152,0r0,536r-152,0r0,-76","w":623},"\u00fb":{"d":"239,-752r144,0r123,157r-117,0r-79,-66r-79,66r-115,0xm403,-76v-36,45,-77,85,-157,86v-118,1,-182,-79,-182,-199r0,-347r152,0r0,299v-1,67,29,109,92,109v62,0,95,-42,95,-109r0,-299r152,0r0,536r-152,0r0,-76","w":623},"\u00fc":{"d":"131,-730r146,0r0,135r-146,0r0,-135xm345,-730r146,0r0,135r-146,0r0,-135xm403,-76v-36,45,-77,85,-157,86v-118,1,-182,-79,-182,-199r0,-347r152,0r0,299v-1,67,29,109,92,109v62,0,95,-42,95,-109r0,-299r152,0r0,536r-152,0r0,-76","w":623},"\u2020":{"d":"173,-508r-120,10r0,-83r119,10r-13,-129r92,0r-13,129r119,-10r0,83r-120,-10r10,270r-84,0","w":410},"\u00b0":{"d":"148,-538v0,52,40,95,92,95v52,0,92,-43,92,-95v0,-50,-41,-93,-92,-93v-51,0,-92,43,-92,93xm413,-538v0,103,-72,170,-173,170v-101,0,-173,-68,-173,-170v0,-101,73,-168,173,-168v101,0,173,67,173,168","w":480},"\u00a2":{"d":"312,-503v-130,2,-156,219,-54,277xm348,-208v47,-6,78,-28,108,-56r86,87v-51,56,-112,99,-214,101r-16,82r-104,0r19,-98v-103,-42,-180,-123,-180,-263v0,-131,73,-215,168,-257v36,-15,74,-23,118,-22r14,-72r104,0r-17,88v46,15,78,42,108,74r-90,97v-16,-15,-29,-28,-49,-38","w":581},"\u00a3":{"d":"375,-567v-82,-2,-88,85,-83,173r228,0r0,127r-228,0r0,134r304,0r0,133r-536,0r0,-101r76,-25r0,-141r-76,0r0,-127r76,0v-15,-197,54,-317,237,-316v113,0,177,50,225,115r-117,94v-31,-36,-51,-64,-106,-66","w":644},"\u00a7":{"d":"420,-368v-52,-19,-216,-91,-232,3v8,53,110,58,162,72v45,12,94,3,94,-42v0,-13,-7,-27,-24,-33xm530,-147v8,156,-209,187,-339,133v-38,-16,-71,-40,-99,-71r82,-82v41,36,80,60,147,66v55,5,91,-45,44,-67v-109,-52,-310,-31,-310,-177v0,-68,40,-98,89,-117v-26,-20,-40,-51,-42,-93v-6,-154,209,-185,339,-131v38,16,71,40,99,71r-82,82v-41,-36,-80,-60,-147,-66v-51,-4,-92,41,-47,65v107,55,305,31,313,179v3,68,-43,97,-89,117v24,18,40,52,42,91","w":632},"\u2022":{"d":"399,-353v0,91,-59,150,-149,150v-90,0,-149,-59,-149,-150v0,-90,60,-148,149,-148v90,0,149,59,149,148"},"\u00b6":{"d":"35,-463v0,-162,112,-237,276,-237r195,0r0,700r-154,0r0,-230v-182,2,-317,-60,-317,-233","w":590},"\u00df":{"d":"446,-378v69,32,131,78,131,179v0,150,-120,205,-278,201r0,-114v72,-4,128,-26,128,-94v0,-63,-66,-88,-128,-97r0,-100v43,-29,88,-60,88,-126v1,-50,-31,-80,-80,-80v-54,0,-88,43,-88,100r0,509r-151,0r0,-503v4,-153,93,-234,246,-234v134,0,220,65,223,196v2,85,-41,129,-91,163","w":620},"\u00ae":{"d":"502,-420v0,-71,-83,-57,-151,-58r0,113v67,0,151,11,151,-55xm588,-427v1,66,-35,102,-83,121r94,138r-99,0r-82,-124r-67,0r0,124r-85,0r0,-385r171,0v86,-1,150,42,151,126xm95,-350v0,243,215,382,447,296v113,-42,193,-146,193,-298v0,-150,-84,-247,-193,-295v-77,-33,-178,-33,-254,1v-110,49,-193,145,-193,296xm749,-210v-63,161,-264,280,-477,194v-125,-51,-219,-163,-219,-334v0,-169,98,-277,221,-333v87,-39,197,-39,284,-1v123,55,219,163,219,334v0,49,-11,96,-28,140","w":830},"\u00a9":{"d":"577,-225v-40,41,-79,71,-158,69v-120,-4,-194,-78,-197,-199v-4,-151,146,-237,290,-183v24,9,44,26,62,43r-55,64v-26,-23,-53,-43,-97,-43v-69,0,-110,49,-110,120v0,70,41,118,110,118v48,0,70,-22,99,-45xm95,-350v0,243,215,382,447,296v113,-42,193,-146,193,-298v0,-150,-84,-247,-193,-295v-77,-33,-178,-33,-254,1v-110,49,-193,145,-193,296xm749,-210v-63,161,-264,280,-477,194v-125,-51,-219,-163,-219,-334v0,-169,98,-277,221,-333v87,-39,197,-39,284,-1v123,55,219,163,219,334v0,49,-11,96,-28,140","w":830},"\u2122":{"d":"118,-638r-92,0r0,-62r254,0r0,62r-92,0r0,246r-70,0r0,-246xm345,-700r74,0r81,130r81,-130r72,0r0,308r-66,0r0,-208r-85,135r-6,0r-85,-135r0,208r-66,0r0,-308","w":690},"\u00b4":{"d":"259,-772r131,57r-128,120r-116,0"},"\u00a8":{"d":"70,-730r146,0r0,135r-146,0r0,-135xm284,-730r146,0r0,135r-146,0r0,-135"},"\u00c6":{"d":"484,-293r0,-274r-18,0r-145,274r163,0xm386,-700r601,0r0,137r-350,0r0,142r305,0r0,137r-305,0r0,147r355,0r0,137r-508,0r0,-157r-235,0r-83,157r-157,0","w":1045},"\u00d8":{"d":"327,-151v28,14,59,25,99,24v133,-5,213,-89,213,-223v0,-45,-11,-86,-34,-123xm424,-573v-133,5,-213,89,-213,223v0,45,11,86,34,123r278,-322v-28,-14,-59,-25,-99,-24xm707,-591v80,79,120,250,62,381v-56,127,-168,222,-345,222v-77,0,-141,-20,-193,-50r-39,43r-147,0r98,-113v-80,-80,-120,-251,-62,-382v56,-127,168,-222,345,-222v77,0,141,20,193,50r39,-43r147,0","w":850},"\u00b1":{"d":"570,-208v-4,148,-104,220,-256,220v-124,0,-214,-52,-277,-119r103,-100v44,45,92,81,176,81v61,1,104,-27,103,-84v-1,-85,-114,-81,-209,-79r0,-128v93,4,191,2,190,-83v-1,-48,-45,-75,-101,-74v-70,1,-104,41,-143,81r-106,-90v58,-72,123,-131,251,-129v140,2,245,56,250,190v3,85,-39,131,-92,162v60,28,113,66,111,152","w":614},"\u00a5":{"d":"269,-92r-184,0r0,-108r184,0r0,-62r-184,0r0,-108r143,0r-214,-330r177,0r154,259r155,-259r172,0r-216,330r145,0r0,108r-184,0r0,62r184,0r0,108r-184,0r0,92r-148,0r0,-92","w":686},"\u00b5":{"d":"424,-570v-159,-4,-248,151,-194,305v27,77,93,135,196,135v132,0,210,-88,210,-220v0,-131,-81,-217,-212,-220xm770,-492v63,146,10,328,-86,405r177,178r0,10r-226,0r-105,-103v-212,51,-387,-53,-450,-206v-61,-146,-1,-320,78,-398v87,-86,271,-140,417,-78v89,38,158,104,195,192","w":850},"\u03bc":{"d":"424,-570v-159,-4,-248,151,-194,305v27,77,93,135,196,135v132,0,210,-88,210,-220v0,-131,-81,-217,-212,-220xm770,-492v63,146,10,328,-86,405r177,178r0,10r-226,0r-105,-103v-212,51,-387,-53,-450,-206v-61,-146,-1,-320,78,-398v87,-86,271,-140,417,-78v89,38,158,104,195,192","w":850},"\u03c0":{"d":"501,-413v0,-65,-68,-62,-133,-60r0,118v65,3,133,3,133,-58xm588,-416v-1,115,-96,144,-220,136r0,116r-86,0r0,-385r158,0v87,-2,149,50,148,133xm95,-350v0,243,215,382,447,296v113,-42,193,-146,193,-298v0,-150,-84,-247,-193,-295v-77,-33,-178,-33,-254,1v-110,49,-193,145,-193,296xm749,-210v-63,161,-264,280,-477,194v-125,-51,-219,-163,-219,-334v0,-169,98,-277,221,-333v87,-39,197,-39,284,-1v123,55,219,163,219,334v0,49,-11,96,-28,140","w":830},"\u00aa":{"d":"133,-495v0,26,20,38,45,38v40,0,72,-22,66,-67v-34,-16,-111,-20,-111,29xm49,-343r278,0r0,66r-278,0r0,-66xm243,-573v7,-76,-98,-65,-145,-43r-21,-63v35,-15,63,-24,114,-24v87,0,132,42,132,127r0,171r-81,0r0,-32v-45,62,-190,48,-190,-54v0,-93,114,-109,191,-82","w":390},"\u00ba":{"d":"123,-553v0,44,29,83,73,83v44,0,71,-39,71,-82v0,-42,-30,-81,-73,-81v-43,0,-71,38,-71,80xm51,-343r288,0r0,66r-288,0r0,-66xm349,-553v0,95,-61,155,-155,155v-93,0,-153,-60,-153,-154v0,-93,61,-153,155,-153v93,0,153,59,153,152","w":390},"\u03a9":{"d":"368,-596v-46,-19,-131,-26,-124,45r0,21r123,0r0,124r-121,0r0,406r-152,0r0,-406r-63,0r0,-125r63,0v-8,-132,42,-207,166,-206v45,0,76,5,108,15r0,126xm750,-596v-46,-19,-131,-26,-124,45r0,21r123,0r0,124r-121,0r0,406r-152,0r0,-406r-63,0r0,-125r63,0v-8,-132,42,-207,166,-206v45,0,76,5,108,15r0,126","w":764},"\u2126":{"d":"368,-596v-46,-19,-131,-26,-124,45r0,21r123,0r0,124r-121,0r0,406r-152,0r0,-406r-63,0r0,-125r63,0v-8,-132,42,-207,166,-206v45,0,76,5,108,15r0,126xm750,-596v-46,-19,-131,-26,-124,45r0,21r123,0r0,124r-121,0r0,406r-152,0r0,-406r-63,0r0,-125r63,0v-8,-132,42,-207,166,-206v45,0,76,5,108,15r0,126","w":764},"\u00e6":{"d":"183,-162v0,68,91,76,151,52v23,-9,46,-21,69,-38v-9,-21,-16,-43,-19,-69v-64,-29,-201,-34,-201,55xm758,-310v-8,-63,-45,-114,-113,-114v-69,0,-105,51,-116,114r229,0xm383,-305v13,-139,-178,-116,-263,-78r-38,-116v101,-52,324,-70,390,25v41,-42,98,-72,177,-72v184,0,266,139,255,331r-373,0v13,65,58,105,131,105v62,0,92,-22,130,-55r87,77v-48,59,-116,100,-219,100v-89,0,-158,-34,-204,-81v-57,41,-125,79,-218,79v-117,0,-202,-50,-202,-166v0,-124,91,-169,216,-171v55,0,91,9,131,22","w":951},"\u00f8":{"d":"276,-126v133,51,244,-79,184,-211xm388,-407v-130,-53,-245,77,-184,210xm556,-448v61,60,88,192,44,290v-44,97,-132,170,-269,170v-58,0,-104,-14,-144,-35r-27,28r-133,0r80,-92v-59,-61,-87,-192,-43,-289v44,-97,132,-170,269,-170v57,0,105,14,143,35r28,-30r133,0","w":664},"\u00bf":{"d":"524,-99v-57,60,-130,109,-245,108v-145,-2,-242,-65,-242,-209v0,-130,88,-178,197,-201r11,-61r102,0r23,162r-5,5v-99,6,-175,16,-175,93v0,49,39,72,92,71v69,-2,110,-30,150,-69xm218,-700r162,0r0,160r-162,0r0,-160","w":544},"\u00a1":{"d":"73,-20r47,-442r84,0r47,442r0,20r-178,0r0,-20xm81,-700r162,0r0,160r-162,0r0,-160","w":324},"\u221a":{"d":"839,-730r152,0r0,730r-152,0r0,-730xm368,-596v-46,-19,-131,-26,-124,45r0,21r123,0r0,124r-121,0r0,406r-152,0r0,-406r-63,0r0,-125r63,0v-8,-132,42,-207,166,-206v45,0,76,5,108,15r0,126xm750,-596v-46,-19,-131,-26,-124,45r0,21r123,0r0,124r-121,0r0,406r-152,0r0,-406r-63,0r0,-125r63,0v-8,-132,42,-207,166,-206v45,0,76,5,108,15r0,126","w":1066},"\u0192":{"d":"500,-567v-36,-10,-93,-17,-119,7v-20,18,-25,57,-31,91r115,0r0,125r-137,0v-31,133,-19,309,-152,340v-37,9,-95,12,-135,4r0,-123v58,10,98,-4,107,-58r28,-163r-67,0r0,-125r89,0v20,-129,49,-236,203,-236v41,0,74,4,99,12r0,126","w":536},"\u2248":{"d":"839,-536r152,0r0,536r-152,0r0,-536xm368,-596v-46,-19,-131,-26,-124,45r0,21r123,0r0,124r-121,0r0,406r-152,0r0,-406r-63,0r0,-125r63,0v-8,-132,42,-207,166,-206v45,0,76,5,108,15r0,126xm750,-596v-46,-19,-131,-26,-124,45r0,21r123,0r0,124r-121,0r0,406r-152,0r0,-406r-63,0r0,-125r63,0v-8,-132,42,-207,166,-206v45,0,76,5,108,15r0,126xm835,-730r160,0r0,135r-160,0r0,-135","w":1066},"\u00ab":{"d":"41,-264r0,-8r168,-224r116,56r-130,171r130,171r-116,58xm313,-264r0,-8r168,-224r116,56r-130,171r130,171r-116,58","w":645},"\u00bb":{"d":"48,-96r130,-171r-130,-171r116,-58r168,224r0,8r-168,224xm320,-96r130,-171r-130,-171r116,-58r168,224r0,8r-168,224","w":645},"\u2026":{"d":"62,-156r158,0r0,156r-158,0r0,-156xm341,-156r158,0r0,156r-158,0r0,-156xm620,-156r158,0r0,156r-158,0r0,-156","w":840},"\u00a0":{"w":300},"\u00c0":{"d":"215,-875r131,-57r113,177r-116,0xm486,-293r-93,-227r-93,227r186,0xm324,-705r142,0r300,705r-161,0r-64,-157r-296,0r-64,157r-157,0","w":790},"\u00c3":{"d":"356,-788v-46,-18,-73,6,-86,43r-81,-25v20,-80,62,-160,169,-132v37,9,65,33,105,33v36,0,43,-22,57,-49r81,25v-21,85,-63,160,-169,132v-27,-8,-51,-18,-76,-27xm486,-293r-93,-227r-93,227r186,0xm324,-705r142,0r300,705r-161,0r-64,-157r-296,0r-64,157r-157,0","w":790},"\u00d5":{"d":"386,-788v-46,-18,-73,6,-86,43r-81,-25v20,-80,62,-160,169,-132v37,9,65,33,105,33v36,0,43,-22,57,-49r81,25v-21,85,-63,160,-169,132v-27,-8,-51,-18,-76,-27xm424,-570v-159,-4,-248,151,-194,305v27,77,93,135,196,135v132,0,210,-88,210,-220v0,-131,-81,-217,-212,-220xm574,-16v-89,38,-210,38,-299,0v-126,-55,-222,-161,-222,-334v0,-171,97,-280,223,-334v89,-38,210,-38,299,0v126,55,222,161,222,334v0,171,-97,280,-223,334","w":850},"\u0152":{"d":"214,-352v0,134,79,208,211,213r89,0r0,-422r-89,0v-131,4,-211,78,-211,209xm425,0v-176,-2,-290,-86,-345,-210v-36,-83,-36,-194,0,-278v55,-125,169,-212,345,-212r592,0r0,137r-350,0r0,142r305,0r0,137r-305,0r0,147r355,0r0,137r-597,0","w":1075},"\u0153":{"d":"192,-269v0,88,50,150,136,150v87,0,134,-60,134,-148v0,-86,-50,-148,-136,-148v-87,0,-134,60,-134,146xm840,-310v-8,-63,-45,-114,-113,-114v-69,0,-105,51,-116,114r229,0xm528,-79v-58,75,-198,115,-314,69v-123,-48,-218,-209,-150,-366v42,-97,130,-170,264,-170v91,0,158,37,202,89v43,-51,109,-89,197,-89v187,0,270,137,259,331r-373,0v13,65,58,105,131,105v62,0,92,-22,130,-55r87,77v-48,59,-116,100,-219,100v-94,0,-168,-38,-214,-91","w":1033},"\u2013":{"d":"50,-381r428,0r0,142r-428,0r0,-142","w":528},"\u2014":{"d":"50,-381r798,0r0,142r-798,0r0,-142","w":898},"\u201c":{"d":"57,-383v1,-106,-10,-231,48,-277v34,-27,78,-44,137,-45r13,63v-71,7,-103,40,-98,99r62,0r0,160r-162,0xm311,-383v1,-106,-10,-231,48,-277v34,-27,78,-44,137,-45r13,63v-71,7,-103,40,-98,99r62,0r0,160r-162,0","w":540},"\u201d":{"d":"31,-441v71,-7,103,-40,98,-99r-62,0r0,-160r162,0v-1,106,10,231,-48,278v-34,27,-78,43,-137,44xm285,-441v71,-7,103,-40,98,-99r-62,0r0,-160r162,0v-1,106,10,231,-48,278v-34,27,-78,43,-137,44","w":540},"\u2018":{"d":"57,-383v1,-106,-10,-231,48,-277v34,-27,78,-44,137,-45r13,63v-71,7,-103,40,-98,99r62,0r0,160r-162,0","w":286},"\u2019":{"d":"31,-441v71,-7,103,-40,98,-99r-62,0r0,-160r162,0v-1,106,10,231,-48,278v-34,27,-78,43,-137,44","w":286},"\u00ff":{"d":"120,-730r146,0r0,135r-146,0r0,-135xm334,-730r146,0r0,135r-146,0r0,-135xm112,16v33,23,104,36,118,-14r-210,-538r161,0r122,365r117,-365r158,0r-206,549v-32,82,-65,150,-176,150v-58,0,-97,-15,-135,-37","w":600},"\u0178":{"d":"178,-890r146,0r0,135r-146,0r0,-135xm392,-890r146,0r0,135r-146,0r0,-135xm281,-276r-269,-424r180,0r167,281r170,-281r175,0r-269,421r0,279r-154,0r0,-276","w":716},"\u2044":{"d":"395,-758r134,0r-466,856r-134,0","w":480},"\u2215":{"d":"395,-758r134,0r-466,856r-134,0","w":480},"\u00a4":{"d":"682,-126v-56,75,-120,138,-245,138v-168,0,-255,-98,-296,-229r-92,0r0,-101r75,0r0,-68r-75,0r0,-101r94,0v43,-148,177,-258,374,-215v76,17,124,63,163,118r-116,88v-36,-43,-63,-79,-133,-79v-67,0,-104,38,-128,88r185,0r0,101r-208,0r0,68r208,0r0,101r-186,0v24,54,63,92,135,92v71,0,95,-37,135,-82","w":720},"\u2039":{"d":"41,-264r0,-8r168,-224r116,56r-130,171r130,171r-116,58","w":373},"\u203a":{"d":"48,-96r130,-171r-130,-171r116,-58r168,224r0,8r-168,224","w":373},"\u2021":{"d":"182,-129r-119,10r0,-83r119,10r-9,-158r9,-158r-119,10r0,-83r119,10r-13,-129r92,0r-13,129r119,-10r0,83r-119,-10r9,158r-9,158r119,-10r0,83r-119,-10r13,129r-92,0","w":430},"\u00b7":{"d":"62,-390r162,0r0,160r-162,0r0,-160","w":286},"\u2219":{"d":"62,-390r162,0r0,160r-162,0r0,-160","w":286},"\u201a":{"d":"26,99v71,-7,103,-40,98,-99r-62,0r0,-160r162,0v-1,106,10,231,-48,278v-34,27,-78,43,-137,44","w":286},"\u201e":{"d":"26,99v71,-7,103,-40,98,-99r-62,0r0,-160r162,0v-1,106,10,231,-48,278v-34,27,-78,43,-137,44xm280,99v71,-7,103,-40,98,-99r-62,0r0,-160r162,0v-1,106,10,231,-48,278v-34,27,-78,43,-137,44","w":540},"\u2030":{"d":"580,-173v0,44,24,90,66,90v44,0,64,-44,64,-88v0,-43,-25,-88,-66,-88v-44,0,-64,42,-64,86xm960,-173v0,44,24,90,66,90v44,0,64,-44,64,-88v0,-43,-25,-88,-66,-88v-44,0,-64,42,-64,86xm150,-531v0,44,24,90,66,90v44,0,64,-44,64,-88v0,-43,-25,-88,-66,-88v-44,0,-64,42,-64,86xm815,-173v0,108,-63,181,-171,181v-107,0,-169,-71,-169,-179v0,-107,64,-179,171,-179v106,0,169,71,169,177xm1195,-173v0,108,-63,181,-171,181v-107,0,-169,-71,-169,-179v0,-107,64,-179,171,-179v106,0,169,71,169,177xm626,-700r119,0r-511,700r-119,0xm385,-531v0,108,-63,181,-171,181v-107,0,-169,-71,-169,-179v0,-107,64,-179,171,-179v106,0,169,71,169,177","w":1240},"\u00c2":{"d":"323,-912r144,0r123,157r-117,0r-79,-66r-79,66r-115,0xm486,-293r-93,-227r-93,227r186,0xm324,-705r142,0r300,705r-161,0r-64,-157r-296,0r-64,157r-157,0","w":790},"\u00ca":{"d":"274,-912r144,0r123,157r-117,0r-79,-66r-79,66r-115,0xm84,-700r528,0r0,137r-375,0r0,142r330,0r0,137r-330,0r0,147r380,0r0,137r-533,0r0,-700","w":670},"\u00c1":{"d":"444,-932r131,57r-128,120r-116,0xm486,-293r-93,-227r-93,227r186,0xm324,-705r142,0r300,705r-161,0r-64,-157r-296,0r-64,157r-157,0","w":790},"\u00cb":{"d":"166,-890r146,0r0,135r-146,0r0,-135xm380,-890r146,0r0,135r-146,0r0,-135xm84,-700r528,0r0,137r-375,0r0,142r330,0r0,137r-330,0r0,147r380,0r0,137r-533,0r0,-700","w":670},"\u00c8":{"d":"189,-875r131,-57r113,177r-116,0xm84,-700r528,0r0,137r-375,0r0,142r330,0r0,137r-330,0r0,147r380,0r0,137r-533,0r0,-700","w":670},"\u00cd":{"d":"217,-932r131,57r-128,120r-116,0xm91,-700r154,0r0,700r-154,0r0,-700","w":336},"\u00ce":{"d":"96,-912r144,0r123,157r-117,0r-79,-66r-79,66r-115,0xm91,-700r154,0r0,700r-154,0r0,-700","w":336},"\u00cf":{"d":"-12,-890r146,0r0,135r-146,0r0,-135xm202,-890r146,0r0,135r-146,0r0,-135xm91,-700r154,0r0,700r-154,0r0,-700","w":336},"\u00cc":{"d":"-12,-875r131,-57r113,177r-116,0xm91,-700r154,0r0,700r-154,0r0,-700","w":336},"\u00d3":{"d":"484,-932r131,57r-128,120r-116,0xm424,-570v-159,-4,-248,151,-194,305v27,77,93,135,196,135v132,0,210,-88,210,-220v0,-131,-81,-217,-212,-220xm574,-16v-89,38,-210,38,-299,0v-126,-55,-222,-161,-222,-334v0,-171,97,-280,223,-334v89,-38,210,-38,299,0v126,55,222,161,222,334v0,171,-97,280,-223,334","w":850},"\u00d4":{"d":"353,-912r144,0r123,157r-117,0r-79,-66r-79,66r-115,0xm424,-570v-159,-4,-248,151,-194,305v27,77,93,135,196,135v132,0,210,-88,210,-220v0,-131,-81,-217,-212,-220xm574,-16v-89,38,-210,38,-299,0v-126,-55,-222,-161,-222,-334v0,-171,97,-280,223,-334v89,-38,210,-38,299,0v126,55,222,161,222,334v0,171,-97,280,-223,334","w":850},"\u00d2":{"d":"235,-875r131,-57r113,177r-116,0xm424,-570v-159,-4,-248,151,-194,305v27,77,93,135,196,135v132,0,210,-88,210,-220v0,-131,-81,-217,-212,-220xm574,-16v-89,38,-210,38,-299,0v-126,-55,-222,-161,-222,-334v0,-171,97,-280,223,-334v89,-38,210,-38,299,0v126,55,222,161,222,334v0,171,-97,280,-223,334","w":850},"\u00da":{"d":"422,-927r131,57r-128,120r-116,0xm683,-305v-1,205,-105,316,-307,316v-192,0,-303,-111,-303,-311r0,-400r154,0r0,396v-1,108,50,173,151,173v100,0,151,-62,151,-168r0,-401r154,0r0,395","w":756},"\u00db":{"d":"306,-912r144,0r123,157r-117,0r-79,-66r-79,66r-115,0xm683,-305v-1,205,-105,316,-307,316v-192,0,-303,-111,-303,-311r0,-400r154,0r0,396v-1,108,50,173,151,173v100,0,151,-62,151,-168r0,-401r154,0r0,395","w":756},"\u00d9":{"d":"203,-870r131,-57r113,177r-116,0xm683,-305v-1,205,-105,316,-307,316v-192,0,-303,-111,-303,-311r0,-400r154,0r0,396v-1,108,50,173,151,173v100,0,151,-62,151,-168r0,-401r154,0r0,395","w":756},"\u0131":{"d":"75,-536r152,0r0,536r-152,0r0,-536","w":302},"\u02c6":{"d":"178,-752r144,0r123,157r-117,0r-79,-66r-79,66r-115,0"},"\u02dc":{"d":"212,-628v-46,-18,-74,6,-87,43r-81,-25v20,-80,61,-160,168,-132v37,9,66,33,106,33v36,0,43,-22,57,-49r81,25v-21,85,-62,160,-168,132v-27,-8,-51,-18,-76,-27"},"\u00af":{"d":"70,-705r360,0r0,105r-360,0r0,-105"},"\u02c9":{"d":"70,-705r360,0r0,105r-360,0r0,-105"},"\u02d8":{"d":"438,-752v-8,99,-81,159,-188,159v-107,0,-180,-60,-188,-159r102,0v13,36,36,60,86,60v50,0,73,-24,86,-60r102,0"},"\u02d9":{"d":"175,-730r150,0r0,135r-150,0r0,-135"},"\u02da":{"d":"188,-711v0,35,28,63,62,63v34,0,62,-28,62,-63v0,-33,-29,-61,-62,-61v-33,0,-62,28,-62,61xm371,-711v0,72,-51,118,-121,118v-70,0,-121,-46,-121,-118v0,-70,51,-116,121,-116v70,0,121,46,121,116"},"\u00b8":{"d":"118,120r89,-130r112,0r-74,183"},"\u02dd":{"d":"147,-772r128,57r-128,120r-111,0xm344,-772r128,57r-130,120r-111,0"},"\u02db":{"d":"291,-10v-19,65,9,108,80,107r0,67v-110,10,-196,-16,-200,-109v0,-24,8,-48,16,-65r104,0"},"\u02c7":{"d":"55,-752r117,0r79,66r79,-66r115,0r-123,157r-144,0"},"\u0141":{"d":"114,-262r-75,22r0,-143r75,-22r0,-295r152,0r0,249r192,-57r0,143r-192,57r0,168r351,0r0,140r-503,0r0,-262","w":649},"\u0142":{"d":"106,-280r-76,23r0,-143r76,-23r0,-307r150,0r0,263r76,-23r0,143r-76,23r0,324r-150,0r0,-280","w":362},"\u0160":{"d":"122,-912r117,0r79,66r79,-66r115,0r-123,157r-144,0xm590,-209v0,208,-231,256,-414,191v-51,-18,-98,-46,-140,-84r91,-109v58,45,117,78,209,85v80,6,140,-75,74,-116v-123,-75,-346,-50,-346,-257v0,-191,211,-247,386,-188v43,15,83,37,119,66r-80,116v-53,-35,-107,-62,-182,-69v-79,-7,-125,81,-60,115v128,66,343,54,343,250","w":640},"\u0161":{"d":"60,-752r117,0r79,66r79,-66r115,0r-123,157r-144,0xm461,-165v5,166,-174,202,-321,155v-40,-13,-78,-33,-114,-61r65,-100v48,35,101,58,169,64v64,6,86,-59,30,-79v-102,-37,-234,-48,-237,-188v-4,-198,275,-202,396,-108r-58,105v-42,-24,-91,-46,-145,-50v-41,-3,-72,30,-47,59v89,64,258,53,262,203","w":502},"\u00dd":{"d":"412,-927r131,57r-128,120r-116,0xm281,-276r-269,-424r180,0r167,281r170,-281r175,0r-269,421r0,279r-154,0r0,-276","w":716},"\u00fd":{"d":"342,-772r131,57r-128,120r-116,0xm112,16v33,23,104,36,118,-14r-210,-538r161,0r122,365r117,-365r158,0r-206,549v-32,82,-65,150,-176,150v-58,0,-97,-15,-135,-37","w":600},"\u00de":{"d":"482,-351v1,-73,-51,-108,-125,-108r-119,0r0,214r122,0v71,2,121,-42,122,-106xm638,-356v0,169,-116,243,-283,248r-117,0r0,108r-154,0r0,-700r154,0r0,102r132,0v163,3,268,82,268,242","w":673},"\u00fe":{"d":"218,-269v0,87,45,150,130,150v85,0,131,-62,131,-150v0,-86,-47,-148,-131,-148v-84,0,-130,62,-130,148xm387,10v-81,4,-130,-38,-167,-80r0,230r-152,0r0,-890r152,0r0,271v37,-48,84,-90,167,-87v158,6,244,114,244,279v0,165,-86,270,-244,277","w":675},"\u017d":{"d":"162,-912r117,0r79,66r79,-66r115,0r-123,157r-144,0xm63,-117r385,-448r-373,0r0,-135r571,0r0,117r-385,448r385,0r0,135r-583,0r0,-117","w":708},"\u017e":{"d":"94,-752r117,0r79,66r79,-66r115,0r-123,157r-144,0xm50,-107r277,-306r-268,0r0,-123r457,0r0,107r-278,306r278,0r0,123r-466,0r0,-107","w":563},"\u00f0":{"d":"190,-249v2,82,51,133,134,133v83,0,132,-50,132,-133v0,-80,-51,-126,-133,-129v-78,-2,-135,54,-133,129xm42,-250v0,-165,122,-261,292,-228v19,4,39,13,60,24r-87,-116r-114,47r-56,-75r115,-46r-64,-86r171,0r23,33r100,-41r55,75r-102,41v84,120,222,267,150,466v-37,101,-128,168,-266,168v-166,0,-277,-99,-277,-262","w":648},"\u00d0":{"d":"598,-348v0,-132,-79,-209,-211,-213r-121,0r0,141r152,0r0,136r-152,0r0,145r121,0v132,-4,211,-78,211,-209xm114,-284r-75,0r0,-136r75,0r0,-280v148,6,312,-19,424,26v127,51,221,153,221,324v0,169,-95,272,-221,323v-112,46,-276,21,-424,27r0,-284","w":812}}});
